-0.33937818,0.42680192,-0.08165527,-0.010492451,-0.48113915,-0.18401204,-0.3027191,0.045562435,0.8221871,0.18513943,0.04969215,0.059568405,-0.4910707,-0.16129702,0.04214302,-0.3705239,0.3726616,0.24530979,-0.36562634,0.5685958,-0.35124564,0.0458351,0.97305524,0.068267666,0.40726095,-0.4331442,0.31603765,-0.24119528,-0.04513585,0.18507782,0.20882425,-0.3015408,-0.100014165,0.2645715,0.63952,0.16547364,0.31401402,-0.5051193,-0.32913986,-0.19062349,0.48934808,-0.16050221,0.15399012,0.46587464,-0.19661961,-0.2501123,-0.029621655,-0.05443626
-0.04097556,-0.30367962,0.0034173024,-0.44770357,0.066985585,0.069795854,-0.0004163945,-0.23302944,0.051507507,0.29731852,0.37737128,0.0914613,-0.11533984,-0.08213221,0.52506447,0.22019216,-0.16695446,0.20469612,0.026097758,-0.07424397,0.004478036,0.15256348,0.058017395,-0.36023474,0.005432581,0.3742917,-0.107134715,0.038933527,-0.06639428,-0.25945064,0.38218862,-0.11440122,-0.015489166,0.037694104,-0.008305656,-0.38542774,0.023601115,0.13241151,-0.025204016,0.07835318,0.02190896,-0.3414761,0.3593572,-0.04158304,0.20126624,-0.16054562,0.29212257,-0.050735433,-0.053891465,0.18172233,0.062265042,-0.21165031,0.021738248,0.06900107,-0.045907617,0.51692784,-0.02250546,-0.31744832,-0.16660464,-0.24101739,-0.14064977,0.2116012,0.07683435,-0.08413968,0.012931384,-0.14478222,0.072661325,-0.21134622,-0.045606617,-0.16749956,0.021656416,-0.05352099,-0.028988713,-0.1409189,-0.12583883,0.07758678,-0.12648475,0.62103915,-0.6583944,-0.42632994,0.06757691,-0.12412376,0.02778601,0.15589194,-0.0993661,0.042024393,-0.03661976,0.025428666,0.010303011,-0.09657071,0.421392,-0.083665505,-0.039988004,0.09525384,-0.27424687,-0.10701024,0.029707395,0.3137387,0.07897006,-0.26544797,0.012612194,-0.008452265,0.022665428,0.015164105,-0.04459693,-0.30196208,-0.47397238,-0.13656606,0.21349083,0.06584969,-0.09525252,0.028766526,0.04060112,-0.09610305,0.00877778,0.028274467,0.07272325,-0.20923902,-0.027466247,-0.022279438,-0.006017079,-0.11329822,-0.08237768,-0.008282089,0.06616544,-0.009914938,-0.055060145,0.00941352,0.020694392,0.16272135,0.037475787,0.23466341,0.026656998,0.091296665,-0.0112159485,0.29414734,-0.012456796,-0.042167425,-0.5042119,-0.16609405,0.12878872,-0.58024126,0.558217,0.03896609,-0.14617419,-0.06503758,-0.06360446,0.021632494,0.027238054,0.05958906,-0.027281184,-0.25445843,-0.007030823,0.23595016,-0.5870088,0.02078683,-0.16006154,0.25235128,0.04862999,0.19087371,0.260254,-0.25722015,0.06409508,0.018051207,-0.029128773,0.07136576,-0.001978938,0.3548583,0.0422426,-0.10174163,-0.5102561,-0.04275241,0.100161456,-0.63043475,-0.023849655,-0.20318907,-0.24462669,0.19597627,-0.16719759,-0.13683626,-0.022381868,-0.16488375,0.034162503,0.20956722,-0.013956425,-0.19421306,0.45836914,-0.07690196,0.0024732498,0.22948387,-0.42970103,-0.34264237,-0.111058354,-0.05382236,-0.041442353,0.1953074,-0.03556017,0.18025106,-0.03865121,0.28001764,-0.018247109,0.12275272,-0.21395987,0.0053006294,-0.013653735,-0.17137915,-0.091151215,-0.076220274,-0.031235106,-0.019217895,0.018885225,-0.07991795,-0.082427934,0.10541391,-0.0139459465,0.52418476,0.029015198,0.25728643,0.3705908,0.081218995,0.025653513,0.29949245,0.46230298,0.044001475,-0.22282629,0.13923326,0.033608593,0.30672342,0.108399846,0.108252674,-0.03663757,-0.3184828,-0.094018206,0.2751306,0.32256937,-0.035438906,0.0914954,0.2953106,-0.12493156,0.39041784,-0.25470135,0.13370675,0.21906956,0.1006673,-0.0046114917,0.13200995,-0.039052304,0.31498817,0.026599841,-0.18776017,0.061070766,-0.15026385,-0.29770565,-0.12231144,0.58998585,-0.24052572,0.13345844,0.30993924,0.038200464,0.019365821,0.0052023483,0.010076459,0.03737442,-0.32274795,-0.040200617,0.17027326,-0.27673313,0.003574686,-0.011762259,-0.17308064,-0.38708422,0.21013337,0.078682624,-0.08755139,0.016308717,0.04947934,0.03515456,0.073569596,0.006773163,0.31372985,0.10066688,-0.11227619,-0.31604117,-0.013568028,0.0658123,0.16625136,0.12123307,-0.10594959,0.21715327,0.0027178677,-0.05591287,-0.10637828,-0.06137911,0.11723164,0.0022763563,0.072944865,-0.02341461,0.35963082,0.82860076,0.14532743,0.12016422,-0.26493028,-0.09885516,0.3383099,0.08531722,0.09319784,-0.017165072,0.17337793,-0.088052094,-0.089895666,-0.0016643133,-0.17179544,-0.018562153,0.06099032,-0.3235831,0.030670395,-0.019344127,0.032478247,0.19273002,0.059510004,-0.3508654,0.26133293,-0.22167543,0.041477524,-0.023149094,0.121578634,-0.12521191,-0.030524904,0.012202736,-0.078503594,0.081145056,0.2329627,-0.21439604,0.005145482,0.55991685,0.12917458,-0.091321744,0.22287202,0.0059490907,0.24997358,0.117628306,-0.039674897,0.054499004,0.16130018,-0.021484151,-0.51087576,0.033937577,-0.28869343,-0.045693155,0.2923427,0.0028209714,0.08820444,0.146612,-0.15643974,-0.0045483196,0.17275952,0.01724574,0.11075976,-0.017563771,0.29801995,-0.07799726,0.26713628,0.17707913,0.028432861,-0.12683797,-0.2901874,-0.16417436,-0.03708636,0.08675398,0.02841806,0.050711427,0.07131779,-0.022794321,-0.1407936,0.040828373,-0.48472312,0.028823454,-0.10043806,0.014655091,0.052838486,-0.19420132,-0.012451636,-0.32115898,-0.17805487,0.28132787,0.32753778,0.05638377,0.2908818,0.07868407,0.10404625,-0.016460031,-0.36445755,-0.031508688,0.1393829,-0.10657498,-0.23381461,0.15709056,-0.24488512,0.4269786,0.30746108,-0.108150296,-0.06152289,-0.046966475,0.24891111,-0.030471798,0.06285149,0.012440332,-0.03784591,0.0704604,0.025127104,-0.42535046,0.08449804,0.07404185,0.11046985,0.17447847,0.2752137,0.16907234,0.17507246,-0.0729614,0.5921555,-0.005519122,0.27582735,-0.08836538,0.07245949,-0.0747542,0.6248972,-0.05892095,-0.16844618,0.16397725,0.13494354,0.916761,0.10679311,-0.2001797,0.25895077,0.06919271,-0.0435448,-0.108881816,-0.1652053,0.015973615,0.23417075,0.08992437,-0.21394964,0.20345166,0.06003763,-0.44336352,0.06854667,0.4848933,-0.24501091,-0.045075685,0.032002818,-0.047746893,-0.047572747,-0.051988415,-0.061317693,-0.013839286,-0.3382256,0.0920663,-0.30586946,-0.2001996,-0.084147856,0.069878295,-0.04902515,0.054240853,-0.10921535,-0.13196667,0.0628577,-0.14271362,-0.124969974,-0.1292675,0.20662723,0.03421348,-0.12280251,-0.009165702,-0.16008776,0.37010294,-0.03227014,0.038403317,-0.14550939,0.88829815,-0.27367494,0.10499459,-0.08483941,0.1317923,-0.27397093,0.07146243,0.025994414,0.0245689,0.1897216,0.008099763,0.102393925,0.17712474,-0.189877,0.16860315,-0.5680418,0.65541434,-0.036492042,0.06471248,-0.13973057,-0.025182247,-0.07905565,0.021999745,0.2508568,-0.07788039,-0.29363194,0.02446929,0.03516363,0.2608609,0.1178049,0.13000247,-0.47506246,0.32125685,-0.05460509,0.021810528,0.03459129,0.108868085,0.13452747,0.27700984,-0.07946141,-0.008269474,0.102759585,-0.24443752,0.062704585,0.011544959,0.74002475,0.25323853,0.16314001,-0.03193365,-0.087733775
-0.10029219,0.03279155,-0.3973675,0.1875975,-0.41762957,-0.43129262,0.32058582,-0.20459661,0.20525187,-0.10742866,-0.13540652,0.32011363,0.18600634,-0.22068202,0.51419765,-0.66540736,0.41779742,-0.026859699,-0.40825272,0.21742083,0.07627779,-0.21515833,-0.16677777,-0.27926648,0.37117863,0.08912274,-0.0022767312,-0.4087801,0.19049543,-0.030445255,0.039341904,-0.2454593,0.067258365,0.42845675,0.052543852,-0.09556214,-0.13720532,0.40139568,0.27836066,0.29259726,0.40553072,-0.14249706,0.100430295,0.31635574,0.40867004,-0.50842357,0.022847524,-0.19626907,-0.11865322,0.21861652,0.06623142,-0.11897747,0.10395188,0.13084596,-0.27189767,0.09038916,0.19733424,-0.09584697,-0.23163438,-0.2309199,0.02074719,-0.30774447,-0.027644875,-0.022639891,-0.13916731,-0.043119866,-0.050822582,0.23056115,0.5051574,0.4364182,-0.1694846,0.0052489815,0.42456272,0.04820796,0.24411584,0.06582546,0.3492718,-0.06965876,-0.12020481,0.47248417,-0.0052685863,-0.15744534,0.099086136,-0.19795121,-0.34226382,-0.20970006,-0.14332028,-0.18146192,0.1476596,-0.5407882,-0.18965074,-0.08493306,-0.07987646,-0.088969454,-0.023972027,-0.30975947,0.0063139796,-0.15645261,0.058983628,-0.14129177,0.24358705,-0.5190606,0.10444718,0.344477,-0.16853206,0.11588685,0.31415644,0.43621883,-0.6704503,-0.07466267,0.33413175,-0.022695038,0.42075878,-0.64446867,0.077422336,0.23652646,0.072232254,0.37950835,0.10705372,0.072677344,0.19708987,-0.79424673,-0.22461374,-0.20493123,-0.22081123,-0.07239849,-0.06909344,0.15027489,0.082472645,0.2146808,0.20028536,0.17686138,0.38496318,-0.18842413,0.043162692,-0.24209787,-0.02878903,0.1778772,-0.4663303,0.6657402,-0.040630367,-0.34906387,0.4046505,-0.690455,0.06515427,-0.095572986,-0.03558866,-0.04501132,-0.0050105304,-0.14275163,-0.20642003,0.46274987,-0.24805464,0.22969934,-0.23317127,-0.17883165,0.09903753,-0.005722107,0.22365719,0.0018417467,0.12051327,-0.20757794,-0.14850567,0.0778209,0.012018756,-0.11405512,-0.23211071,-0.092033714,-0.1805209,-0.55998635,0.24171148,0.5262393,-0.16962108,0.37833253,-0.021123094,-0.58135676,0.23378734,0.107243635,0.39940342,0.4977909,-0.22700174,0.4663016,-0.09153652,-0.02172212,-0.4281723,-0.013076295,0.30669692,0.3246881,0.20605937,-0.23588109,0.1507858,0.32888108,-0.30971903,0.14867602,-0.2843434,0.03766036,0.087676466,-0.1298865,-0.021121666,0.17730711,0.056602534,0.46347904,-0.17733024,-0.07801457,0.16902031,-0.0735162,-0.01681475,0.046962712,-0.018116714,0.24317116,-0.47474685,0.39648035,0.4222405,-0.039412484,-0.18499392,0.28755105,0.005712107,0.16978662,0.3746914,-0.37002406,0.13741095,0.39226273,0.42112368,0.35471922,0.58099264,-0.093917325,0.14354867,0.1538584,0.06635807,-0.12284775,-0.07582472,0.34760943,-0.1995828,0.08336092,0.6269316,0.17052317,-0.17461622,0.0020414332,-0.0962379,0.40343913,0.45415908,0.38622412,0.54428816,0.31407258,0.6264518,0.33308113,-0.004374869,-0.23625752,0.1330869,-0.8702413,-0.31043428,-0.16776665,-0.2368431,-0.046151906,0.24195279,0.48002663,-0.26946732,0.16194676,-0.14652257,-0.030440034,0.058501188,0.41901797,0.09444139,-0.21988426,0.08683051,0.1775899,0.0143585075,0.21777314,-0.078102954,-0.09945766,0.12110086,0.26219088
-0.33895385,0.23087817,-0.29837862,-0.3335707,0.4070613,0.59760916,0.24765676,-0.3292937,0.26030442,0.462907,0.19223677,0.2401423,0.43457997,-0.22396988,0.13750675,0.1269631,0.034062255
